var0 = 9.6 * -9 - -0 + +2
vec0 = [9,1,8,389,782370,622695649451622]
if 62.1 == 27 * +3.42:
 var1 = 2 * -0 / -5 + 3 - +7
elif var0 * var0 == +388478.0 * var0 / -0:
 if 15.48 / var0 == +1:
  print(var0)
  var1 = -6 / -0 + 4 * +1 * +1
  vec0 = [3,1,61,4556,91788217]
  vec0 = [1,6,574,7261923,7698979882]
 elif 5.3 > -9.4 / var0 * var0:
  vec1 = [3,9,7953,91,7134186]
print(vec0)
for it0 in range(5):
 var1 = 7.5 * -8 - 3 + +0
 var2 = 6 * +3 - -5 + +5 + -1
 vec1 = [7,2,59,575776,1589]
 vec0 = [7,9,5,7,691,62464]
 var3 = -0 / -6 - -3 / 5 - -2
 vec1 = [7,8,7,6,27422,54631192]
 vec2 = [7,9,473,1257,4845387]
 vec2 = [7,57,5,76118,98545499]
 for it1 in vec2:
  vec1 = [4,4,18,45,323,9894476]
if +8.9 * var0 < +3 * (var0):
 for it0 in vec0:
  if var0 < var0:
   vec1 = [3,9,1,759,323838913]
else:
 if var0 <= var0:
  var1 = 9 * -8 + -5 + -2 - -3
 elif var0 > var0:
  var1 = +0 / 9 - 0 / 0 - 5
 elif var0 != var0:
  var0 = +7 * -0 / -7 + -4 * -3
vec0 = [7,7,5,220,2883]
vec0 = [1,8,5,7,5,0,4540]
for it0 in range(3):
 if -0.4 / it0 > +1.2 * it0:
  vec0 = [1,3,54,5874,955241543]
  vec1 = [4,4,9,6,18850,8626561515851]
  vec1 = [0,7,80,1,2321,66]
  vec0 = [4,94,3,661617,876940]
  for it1 in vec1:
   it1 = +3.2 / -6 - +2 - -7
 else:
  for it1 in range(8):
   var0 = 6 / (+3) / +5 / 4 - 9
   vec0 = [7,3,8456,5,8,87260]
   vec1 = [1,2,9,3953,23433]
   vec1 = [4,3,28,823,25151]
 if var0 * it0 >= it0 * 4.2:
  vec1 = [9,4333,1,74,661278312]
 if var0 / var0 < it0:
  var1 = +95 * -1 / +0 + +5
  var0 = 9 + +3 / -1 - 0 + +5
  var2 = 4 * -4 / +2 + +8.0
  var3 = +2 / -3 - +1 - 4 + 9
 else:
  print(it0)
 var0 = 0 * -7 * +7 + 9 + +5
vec1 = [6,3,36,120,711925]
print(var0)
vec2 = [4,5,33,947,24218190]
var1 = 9 * 7 + +9 * +6 + +5
print(var0)
for it0 in vec2:
 vec1 = [4,7,85,51590,4831]
vec3 = [0,8,3,310,861,79973394]
print(vec0)
print(vec1)
for it0 in vec0:
 print(var0)
print(vec1)
print(var0)
if var0 * (+8.88) * +3 >= 644878.1 * -176:
 for it0 in range(5):
  var0 = 1 * -3 - 1 * -2 - -4
  var1 = -1 + 8 + +6 + 7 + 5
else:
 if var1 >= var1:
  print(var1)
 elif var1 != var0:
  vec2 = [1,1,5,2,87586,28566]
 else:
  var2 = (+3 - 1) + +8 - +7 - -0
 vec1 = [7,6,3,0,26424,432435427]
 var2 = +0 / (6) + +6 + +6 - -4
 vec4 = [4,2,170,14,7555954633]
 var2 = +5 * -7 / 6 + +1 + -2
 print(vec2)
 vec5 = [5,6,9,84,7614,2542159188]
 vec6 = [4,31,90,21661,88247]
 var2 = -8 * +3 + 8 + -9 - +3
 vec7 = [6,4,83,49,765,5541993555]
 vec2 = [9,6,8594,965218,19896721]
 vec3 = [6,5,35,612,44367,374697386]
 var1 = (6) / -4 * +9 - +32
 if var0 <= var1:
  var1 = -0 * +1 - -7 + 0 - +6
 if -9 / var2 * var1 > -71.41 / 3 / var0:
  if var0 > (var0 + var2) / var0 * var2:
   print(var1)
  else:
   var3 = -3.6 / -9 + 8 + -2
   vec8 = [2,4,642,758,245290]
   print(vec3)
 print(var0)
 var3 = -1 / +5 - 3 * 9 + -5