var0 = 8.1 * -9 - -4 + +7
vec0 = [3,7,1,386,782375,622695649451629]
if 67.2 == 21 * +3.49:
 var1 = 6 * -5 / -5 + 3 - +1
elif var0 * var0 == +388473.7 * var0 / -2:
 if 17.46 / var0 == +3:
  print(var0)
  var1 = -5 / -7 + 3 * +4 * +5
  vec0 = [6,4,62,4551,91788217]
  vec0 = [6,3,577,7261921,7698979889]
 elif 1.7 > -3.4 / var0 * var0:
  vec1 = [9,3,7951,94,7134185]
print(vec0)
for it0 in range(1,4):
 var1 = 2.2 * -7 - 5 + +4
 var2 = 5 * +4 - -9 + +4 + -9
 vec1 = [6,4,54,575775,1581]
 vec1 = [9,6,6,4,696,62466]
 var3 = -6 / -2 - -3 / 7 - -5
 vec0 = [9,4,4,7,27423,54631197]
 vec2 = [7,5,472,1252,4845383]
 vec2 = [3,56,9,76114,98545494]
 for it1 in vec2:
  vec0 = [9,3,18,42,325,9894471]
if +7.9 * var0 < +1 * (var0):
 for it0 in vec0:
  if var0 < var0:
   vec1 = [4,6,1,751,323838912]
else:
 if var0 <= var0:
  var1 = 5 * -9 + -2 + -5 - -1
 elif var0 > var0:
  var1 = +5 / 5 - 4 / 5 - 8
 elif var0 != var0:
  var0 = +9 * -1 / -1 + -9 * -2
vec0 = [4,4,6,221,2882]
vec0 = [6,9,4,8,9,6,4547]
for it0 in range(1,5):
 if -1.8 / it0 > +8.6 * it0:
  vec0 = [3,3,57,5876,955241545]
  vec1 = [9,6,4,3,18858,8626561515856]
  vec0 = [5,7,85,5,2324,64]
  vec1 = [7,96,5,661612,876942]
  for it1 in vec0:
   it1 = +4.2 / -9 - +8 - -4
 else:
  for it1 in range(1,3):
   it0 = 5 / (+6) / +7 / 3 - 3
   vec0 = [9,9,8451,6,6,87261]
   vec1 = [5,6,7,3953,23431]
   vec0 = [4,4,22,826,25158]
 if var0 * it0 >= it0 * 7.6:
  vec1 = [2,4331,3,72,661278317]
 if var0 / var0 < it0:
  var1 = +93 * -5 / +1 + +7
  var1 = 4 + +5 / -7 - 7 + +4
  var2 = 2 * -7 / +3 + +1.1
  var3 = +7 / -9 - +8 - 5 + 9
 else:
  print(it0)
 var0 = 7 * -2 * +6 + 4 + +1
vec1 = [1,9,35,124,711927]
print(var0)
vec2 = [7,4,33,945,24218198]
var1 = 3 * 4 + +4 * +4 + +5
print(var1)
for it0 in vec0:
 vec1 = [2,2,83,51598,4835]
vec3 = [7,8,7,316,863,79973396]
print(vec1)
print(vec3)
for it0 in vec1:
 print(it0)
print(vec3)
print(var1)
if var1 * (+2.84) * +1 >= 644877.9 * -177:
 for it0 in range(1,8):
  it0 = 4 * -1 - 6 * -9 - -8
  var0 = -2 + 4 + +7 + 7 + 2
else:
 if var0 >= var0:
  print(var0)
 elif var0 != var1:
  vec2 = [7,2,5,3,87586,28568]
 else:
  var2 = (+1 - 3) + +2 - +2 - -6
 vec3 = [1,4,6,1,26425,432435423]
 var2 = +3 / (1) + +4 + +5 - -3
 vec4 = [4,7,173,13,7555954638]
 var2 = +4 * -2 / 7 + +4 + -8
 print(vec2)
 vec5 = [4,5,8,81,7613,2542159186]
 vec6 = [3,39,94,21663,88245]
 var2 = -6 * +5 + 6 + -8 - +6
 vec7 = [9,4,82,41,762,5541993559]
 vec5 = [7,7,8595,965218,19896728]
 vec6 = [2,6,39,614,44367,374697384]
 var0 = (5) / -7 * +1 - +37
 if var1 <= var0:
  var0 = -1 * +5 - -7 + 9 - +6
 if -1 / var2 * var0 > -76.45 / 2 / var1:
  if var1 > (var1 + var2) / var1 * var2:
   print(var0)
  else:
   var3 = -9.8 / -9 + 4 + -6
   vec8 = [4,9,648,751,245298]
   print(vec6)
 print(var1)
 var3 = -3 / +6 - 3 * 5 + -7